Language model created by QuickLM on Sun Oct 22 19:07:37 EDT 2017
Copyright (c) 1996-2010 Carnegie Mellon University and Alexander I. Rudnicky

The model is in standard ARPA format, designed by Doug Paul while he was at MITRE.

The code that was used to produce this language model is available in Open Source.
Please visit http://www.speech.cs.cmu.edu/tools/ for more information

The (fixed) discount mass is 0.5. The backoffs are computed using the ratio method.
This model based on a corpus of 5 sentences and 7 words

\data\
ngram 1=7
ngram 2=10
ngram 3=5

\1-grams:
-0.7782 </s> -0.3010
-0.7782 <s> -0.2218
-1.4771 CHOCOLATE -0.2218
-1.4771 ESPRESSO -0.2218
-1.4771 GIN -0.2218
-1.4771 MARTINI -0.2218
-1.4771 VODKA -0.2218

\2-grams:
-1.0000 <s> CHOCOLATE 0.0000
-1.0000 <s> ESPRESSO 0.0000
-1.0000 <s> GIN 0.0000
-1.0000 <s> MARTINI 0.0000
-1.0000 <s> VODKA 0.0000
-0.3010 CHOCOLATE </s> -0.3010
-0.3010 ESPRESSO </s> -0.3010
-0.3010 GIN </s> -0.3010
-0.3010 MARTINI </s> -0.3010
-0.3010 VODKA </s> -0.3010

\3-grams:
-0.3010 <s> CHOCOLATE </s>
-0.3010 <s> ESPRESSO </s>
-0.3010 <s> GIN </s>
-0.3010 <s> MARTINI </s>
-0.3010 <s> VODKA </s>

\end\
