Language model created by QuickLM on Fri Dec  8 10:49:20 EST 2017
Copyright (c) 1996-2010 Carnegie Mellon University and Alexander I. Rudnicky

The model is in standard ARPA format, designed by Doug Paul while he was at MITRE.

The code that was used to produce this language model is available in Open Source.
Please visit http://www.speech.cs.cmu.edu/tools/ for more information

The (fixed) discount mass is 0.5. The backoffs are computed using the ratio method.
This model based on a corpus of 10 sentences and 12 words

\data\
ngram 1=12
ngram 2=20
ngram 3=10

\1-grams:
-0.7782 </s> -0.3010
-0.7782 <s> -0.2218
-1.7782 AMERICANO -0.2218
-1.7782 BACARDI -0.2218
-1.7782 GIBSON -0.2218
-1.7782 MANHATTAN -0.2218
-1.7782 MARTINI -0.2218
-1.7782 NO -0.2218
-1.7782 PARADISE -0.2218
-1.7782 ROSE -0.2218
-1.7782 SCREWDRIVER -0.2218
-1.7782 YES -0.2218

\2-grams:
-1.3010 <s> AMERICANO 0.0000
-1.3010 <s> BACARDI 0.0000
-1.3010 <s> GIBSON 0.0000
-1.3010 <s> MANHATTAN 0.0000
-1.3010 <s> MARTINI 0.0000
-1.3010 <s> NO 0.0000
-1.3010 <s> PARADISE 0.0000
-1.3010 <s> ROSE 0.0000
-1.3010 <s> SCREWDRIVER 0.0000
-1.3010 <s> YES 0.0000
-0.3010 AMERICANO </s> -0.3010
-0.3010 BACARDI </s> -0.3010
-0.3010 GIBSON </s> -0.3010
-0.3010 MANHATTAN </s> -0.3010
-0.3010 MARTINI </s> -0.3010
-0.3010 NO </s> -0.3010
-0.3010 PARADISE </s> -0.3010
-0.3010 ROSE </s> -0.3010
-0.3010 SCREWDRIVER </s> -0.3010
-0.3010 YES </s> -0.3010

\3-grams:
-0.3010 <s> AMERICANO </s>
-0.3010 <s> BACARDI </s>
-0.3010 <s> GIBSON </s>
-0.3010 <s> MANHATTAN </s>
-0.3010 <s> MARTINI </s>
-0.3010 <s> NO </s>
-0.3010 <s> PARADISE </s>
-0.3010 <s> ROSE </s>
-0.3010 <s> SCREWDRIVER </s>
-0.3010 <s> YES </s>

\end\
